{
    "type": "LSTMTimeStep",
    "options": {
        "inputSize": 1,
        "inputRange": 0,
        "hiddenLayers": [10],
        "outputSize": 1,
        "decayRate": 0.999,
        "smoothEps": 1e-8,
        "regc": 0.000001,
        "clipval": 5,
        "maxPredictionLength": 100,
        "dataFormatter": {
            "indexTable": {},
            "characterTable": {},
            "characters": [],
            "specialIndexes": []
        }
    },
    "hiddenLayers": [
        {
            "inputMatrix": {
                "rows": 10,
                "columns": 1,
                "weights": [
                    -0.06435996294021606, 0.05518084764480591,
                    0.05547131597995758, -0.03060409240424633,
                    -0.06322331726551056, 0.05209489166736603,
                    -0.03874952346086502, -0.04386837035417557,
                    -0.0060399919748306274, 0.03284288942813873
                ]
            },
            "inputHidden": {
                "rows": 10,
                "columns": 10,
                "weights": [
                    0.019589737057685852, -0.057014692574739456,
                    -0.019429035484790802, -0.07562709599733353,
                    -0.046553656458854675, -0.006594420410692692,
                    -0.03968233987689018, -0.053365860134363174,
                    0.013704649172723293, -0.011576819233596325,
                    -0.05486517399549484, -0.04882093891501427,
                    -0.015351708978414536, -0.0011046830331906676,
                    0.01070268265902996, -0.010782068595290184,
                    0.03701702877879143, -0.03917577862739563,
                    0.047639019787311554, -0.015657134354114532,
                    0.06154590845108032, 0.061896588653326035,
                    -0.05158800259232521, -0.0429467149078846,
                    -0.026555735617876053, -0.040336523205041885,
                    0.04307703673839569, 0.073420949280262, 0.06877922266721725,
                    0.051863349974155426, -0.0214228518307209,
                    -0.011123210191726685, -0.02771024964749813,
                    -0.016215931624174118, -0.051501721143722534,
                    0.008661107160151005, -0.06127292662858963,
                    0.028733380138874054, -0.045162372291088104,
                    -0.006152980495244265, 0.053749993443489075,
                    0.026198774576187134, 0.007369668688625097,
                    0.050624605268239975, 0.011309497058391571,
                    -0.06014702469110489, 0.06674173474311829,
                    -0.07348648458719254, 0.06554965674877167,
                    0.02066212333738804, 0.043464358896017075,
                    0.04530026763677597, 0.06887676566839218,
                    -0.07215359061956406, 0.04317539557814598,
                    0.052015502005815506, 0.053450461477041245,
                    0.026468396186828613, 0.06745262444019318,
                    0.05485684797167778, -0.03423595428466797,
                    0.03684345632791519, -0.05478599667549133,
                    0.016094135120511055, 0.04784606397151947,
                    -0.06932441890239716, 0.00659863231703639,
                    0.04340515285730362, -0.06317256391048431,
                    0.07172465324401855, 0.0513271763920784,
                    -0.05396809056401253, -0.04595521464943886,
                    0.028920749202370644, -0.05241996794939041,
                    -0.02238040417432785, 0.0406821109354496,
                    -0.04626975208520889, 0.0297817662358284,
                    0.019305352121591568, 0.04119976609945297,
                    -0.040469083935022354, -0.01312295626848936,
                    -0.020973438397049904, -0.0743403285741806,
                    0.04611628130078316, 0.03598430007696152,
                    -0.07463579624891281, -0.005118741653859615,
                    0.04403082653880119, -0.0051942551508545876,
                    0.05936124920845032, -0.001216907985508442,
                    -0.003810850903391838, -0.05362255126237869,
                    -0.03506610915064812, -0.07514049857854843,
                    -0.04083044454455376, -0.045193862169981,
                    0.027215275913476944
                ]
            },
            "inputBias": {
                "rows": 10,
                "columns": 1,
                "weights": [0, 0, 0, 0, 0, 0, 0, 0, 0, 0]
            },
            "forgetMatrix": {
                "rows": 10,
                "columns": 1,
                "weights": [
                    0.006032900419086218, 0.07528386265039444,
                    -0.026301169767975807, -0.06553854048252106,
                    -0.04719614237546921, 0.05487402528524399,
                    0.019462987780570984, 0.06544136255979538,
                    -0.06890282034873962, 0.019609970971941948
                ]
            },
            "forgetHidden": {
                "rows": 10,
                "columns": 10,
                "weights": [
                    0.049967676401138306, 0.06213536113500595,
                    0.023264529183506966, 0.010138890706002712,
                    0.03866259753704071, -0.011373547837138176,
                    -0.06406949460506439, -0.06183364987373352,
                    -0.028043648228049278, 0.0030520418658852577,
                    0.055224787443876266, -0.006046586204320192,
                    0.018898844718933105, -0.04175427556037903,
                    -0.055191103368997574, -0.006666088476777077,
                    0.03800778090953827, -0.04084236919879913,
                    -0.06728056073188782, -0.07056854665279388,
                    -0.010180260986089706, -0.014398866333067417,
                    0.030704155564308167, 0.0008868860895745456,
                    -0.01917550340294838, -0.06526767462491989,
                    -0.02726166695356369, -0.06648741662502289,
                    -0.04572958126664162, -0.05652708560228348,
                    -0.07149361073970795, 0.017854610458016396,
                    -0.035032983869314194, 0.004947925917804241,
                    -0.06089961156249046, 0.0013618803350254893,
                    -0.07335366308689117, 0.06270138174295425,
                    0.00009086685895454139, -0.011658894829452038,
                    -0.04635890945792198, 0.06789293140172958,
                    0.04443925991654396, 0.017451340332627296,
                    -0.06693018227815628, 0.05695345997810364,
                    -0.0747576579451561, -0.004291792865842581,
                    0.02474740520119667, 0.05150775611400604,
                    -0.02126646786928177, -0.06201690062880516,
                    -0.07404901087284088, -0.01990954764187336,
                    -0.03749335557222366, -0.04063547030091286,
                    0.034941088408231735, 0.06866568326950073,
                    0.03882161155343056, -0.04417711868882179,
                    0.024450436234474182, -0.023577384650707245,
                    0.04773307964205742, -0.017329605296254158,
                    -0.029479071497917175, 0.03561145067214966,
                    0.06796622276306152, 0.04680744186043739,
                    -0.022879935801029205, -0.06244691088795662,
                    -0.00012459096615202725, 0.053853049874305725,
                    -0.05787302181124687, -0.016969939693808556,
                    -0.01310585718601942, -0.04578622430562973,
                    0.023042501881718636, 0.02160697989165783,
                    -0.07284361124038696, 0.07225657999515533,
                    -0.0639047771692276, 0.005522595252841711,
                    0.05968499183654785, -0.020874353125691414,
                    -0.030873360112309456, -0.03401532024145126,
                    0.06284341216087341, -0.006560390815138817,
                    0.05534622445702553, -0.03141489624977112,
                    0.0265471450984478, 0.03369562700390816,
                    0.06386872380971909, -0.05376339703798294,
                    -0.07179547101259232, 0.04359225556254387,
                    -0.06296194344758987, 0.07455697655677795,
                    0.00033981946762651205, 0.04035954922437668
                ]
            },
            "forgetBias": {
                "rows": 10,
                "columns": 1,
                "weights": [0, 0, 0, 0, 0, 0, 0, 0, 0, 0]
            },
            "outputMatrix": {
                "rows": 10,
                "columns": 1,
                "weights": [
                    0.0400102324783802, -0.06612122803926468,
                    0.028105873614549637, -0.056730762124061584,
                    0.0023901881650090218, -0.06619767844676971,
                    0.045605629682540894, -0.028095142915844917,
                    0.025551259517669678, -0.03263077884912491
                ]
            },
            "outputHidden": {
                "rows": 10,
                "columns": 10,
                "weights": [
                    0.004793924279510975, -0.02359638549387455,
                    0.007537339814007282, -0.07008814811706543,
                    -0.06591449677944183, 0.07285688817501068,
                    0.01566859520971775, -0.02711302600800991,
                    -0.02164936624467373, 0.054467543959617615,
                    0.039692044258117676, -0.0014214166440069675,
                    -0.02027345821261406, -0.026273712515830994,
                    0.05121014267206192, -0.033734146505594254,
                    0.03449661284685135, -0.04384235292673111,
                    -0.07517846673727036, 0.029272370040416718,
                    0.035936854779720306, 0.051358625292778015,
                    0.0068855588324368, -0.006402981001883745,
                    -0.029430696740746498, -0.030897798016667366,
                    -0.022540178149938583, -0.06230872496962547,
                    0.061657924205064774, -0.05320695415139198,
                    0.03273402899503708, -0.013384887017309666,
                    0.035260528326034546, 0.02624150738120079,
                    -0.04633765295147896, -0.01609838753938675,
                    -0.002786837751045823, -0.06805811077356339,
                    -0.009381147101521492, -0.04331011697649956,
                    -0.0159748662263155, 0.02799033373594284,
                    -0.055953968316316605, -0.03698893263936043,
                    -0.04603348672389984, 0.04702507704496384,
                    0.040253281593322754, -0.06527741253376007,
                    -0.014690371230244637, -0.03726310282945633,
                    -0.0664018914103508, -0.06539402157068253,
                    -0.07346880435943604, -0.046321138739585876,
                    0.03952249139547348, -0.016358671709895134,
                    0.043161530047655106, 0.00460278382524848,
                    -0.04824545234441757, 0.02073107659816742,
                    0.02396530658006668, -0.0027755475603044033,
                    0.011934705078601837, -0.05066491290926933,
                    -0.055852875113487244, 0.046206995844841,
                    -0.01623326539993286, -0.050573479384183884,
                    0.07232631742954254, 0.06990932673215866,
                    -0.06740766763687134, 0.018795713782310486,
                    0.019596027210354805, -0.05251789093017578,
                    -0.027157282456755638, -0.029797129333019257,
                    0.04603308439254761, 0.0003560073091648519,
                    0.049405813217163086, -0.010211227461695671,
                    -0.0207779873162508, 0.0132145332172513,
                    0.06908400356769562, 0.01060294359922409,
                    0.03573457524180412, 0.06769504398107529,
                    0.004059005994349718, -0.05902811139822006,
                    -0.0019528112607076764, 0.004872324876487255,
                    -0.0711357519030571, -0.0019572917371988297,
                    0.029709085822105408, -0.0027824798598885536,
                    0.048987433314323425, 0.0010277732508257031,
                    0.06994470208883286, 0.06511970609426498,
                    0.047746431082487106, -0.06892266869544983
                ]
            },
            "outputBias": {
                "rows": 10,
                "columns": 1,
                "weights": [0, 0, 0, 0, 0, 0, 0, 0, 0, 0]
            },
            "cellActivationMatrix": {
                "rows": 10,
                "columns": 1,
                "weights": [
                    -0.016432158648967743, -0.06652769446372986,
                    0.00201748707331717, -0.053291622549295425,
                    0.058751363307237625, -0.0701197013258934,
                    -0.06144779548048973, -0.04385552555322647,
                    0.002904761815443635, -0.038338009268045425
                ]
            },
            "cellActivationHidden": {
                "rows": 10,
                "columns": 10,
                "weights": [
                    -0.02367515303194523, -0.05945098027586937,
                    -0.062293849885463715, -0.017138004302978516,
                    0.007655859924852848, -0.019370708614587784,
                    -0.00046382268192246556, 0.008468433283269405,
                    0.07082344591617584, 0.06961432099342346,
                    0.06585782021284103, -0.06898611038923264,
                    0.06377946585416794, -0.051244255155324936,
                    -0.0663161426782608, -0.010985109955072403,
                    0.004478324204683304, 0.06325889378786087,
                    0.06725866347551346, 0.03078373707830906,
                    0.014184786938130856, -0.037187326699495316,
                    -0.03421869874000549, 0.003516702214255929,
                    0.050228942185640335, 0.05824998766183853,
                    0.047834526747465134, -0.06330031156539917,
                    0.06390739232301712, -0.05021166056394577,
                    -0.03276681527495384, -0.06992173194885254,
                    -0.06274060159921646, 0.048049554228782654,
                    0.06990311294794083, -0.012296726927161217,
                    0.004964801482856274, 0.024911630898714066,
                    0.022367767989635468, 0.016196951270103455,
                    -0.03200055658817291, 0.04612207040190697,
                    -0.021202586591243744, 0.07051179558038712,
                    -0.05592813342809677, -0.04416881874203682,
                    -0.05391918122768402, 0.05114404857158661,
                    -0.019801964983344078, 0.0009391919011250138,
                    0.011631841771304607, 0.046558789908885956,
                    0.032897476106882095, 0.019976478070020676,
                    0.05706976726651192, 0.033280398696660995,
                    -0.04996613785624504, 0.05118604749441147,
                    -0.01750764064490795, -0.019437219947576523,
                    -0.07017829269170761, 0.049273986369371414,
                    0.059458255767822266, -0.06598984450101852,
                    0.05573961138725281, -0.006863678805530071,
                    -0.028729679062962532, 0.05162101238965988,
                    -0.010814599692821503, -0.05287822708487511,
                    -0.03964182734489441, 0.007961991243064404,
                    -0.015502956695854664, -0.006863770540803671,
                    0.0055616674944758415, 0.06027315557003021,
                    0.06344595551490784, -0.009972297586500645,
                    0.06629575788974762, 0.018611978739500046,
                    0.06930546462535858, -0.06202675774693489,
                    0.009352006018161774, -0.06673618406057358,
                    -0.0309260543435812, 0.06889481842517853,
                    -0.07167300581932068, 0.05632792413234711,
                    0.04842690750956535, -0.017803585156798363,
                    0.07011517137289047, -0.027856959030032158,
                    -0.02000455930829048, -0.038959186524152756,
                    -0.001957420725375414, -0.03243439272046089,
                    0.05832098796963692, -0.05738241225481033,
                    -0.06486508995294571, 0.03428022563457489
                ]
            },
            "cellActivationBias": {
                "rows": 10,
                "columns": 1,
                "weights": [0, 0, 0, 0, 0, 0, 0, 0, 0, 0]
            }
        }
    ],
    "outputConnector": {
        "rows": 1,
        "columns": 10,
        "weights": [
            0.04543665796518326, 0.05341223627328873, 46.238548278808594,
            -0.0018876404501497746, 0.03436567634344101, -0.0051043713465332985,
            0.04255755990743637, 0.04012966901063919, -0.019641174003481865,
            -0.051819611340761185
        ]
    },
    "output": { "rows": 1, "columns": 1, "weights": [36.243446350097656] },
    "inputLookup": null,
    "inputLookupLength": 0,
    "outputLookup": null,
    "outputLookupLength": 0
}
