{
    "type": "LSTMTimeStep",
    "options": {
        "inputSize": 1,
        "inputRange": 0,
        "hiddenLayers": [10],
        "outputSize": 1,
        "decayRate": 0.999,
        "smoothEps": 1e-8,
        "regc": 0.000001,
        "clipval": 5,
        "maxPredictionLength": 100,
        "dataFormatter": {
            "indexTable": {},
            "characterTable": {},
            "characters": [],
            "specialIndexes": []
        }
    },
    "hiddenLayers": [
        {
            "inputMatrix": {
                "rows": 10,
                "columns": 1,
                "weights": [
                    0.05447624251246452, 0.05065063387155533,
                    0.07726973295211792, 0.054680146276950836,
                    -0.17485740780830383, 0.05138879641890526,
                    0.29132840037345886, 0.15346914529800415,
                    0.0792388990521431, 0.08045761287212372
                ]
            },
            "inputHidden": {
                "rows": 10,
                "columns": 10,
                "weights": [
                    -0.0659300684928894, -0.06957323104143143,
                    -0.026200540363788605, 0.011585421860218048,
                    0.012934945523738861, -0.017871271818876266,
                    -0.033656734973192215, -0.021267814561724663,
                    -0.027066199108958244, -0.006186092272400856,
                    0.06412389874458313, 0.04029393568634987,
                    -0.03181959688663483, 0.05749691650271416,
                    0.016315098851919174, -0.008665305562317371,
                    -0.04065408557653427, -0.06089584529399872,
                    0.06110692769289017, -0.05740552768111229,
                    -0.028468988835811615, 0.026952330023050308,
                    -0.00837884470820427, 0.06937110424041748,
                    0.002227206714451313, 0.06785786896944046,
                    0.006727463565766811, 0.035451266914606094,
                    0.011189899407327175, 0.000269047130132094,
                    0.03411967307329178, -0.007132312748581171,
                    -0.0321895107626915, 0.034010615199804306,
                    0.0631636530160904, -0.06265481561422348,
                    0.02547520399093628, -0.03800125792622566,
                    -0.012250550091266632, 0.016779368743300438,
                    0.022033557295799255, -0.05471060797572136,
                    -0.002920071827247739, -0.04000736027956009,
                    0.0343632847070694, -0.027238385751843452,
                    0.01841070130467415, -0.04755989834666252,
                    0.018870888277888298, -0.029707804322242737,
                    0.04766205698251724, 0.01590792089700699,
                    0.01965293288230896, 0.041251879185438156,
                    -0.06191626936197281, 0.019111376255750656,
                    0.035327598452568054, 0.05554456263780594,
                    0.06159437820315361, -0.04201267659664154,
                    0.04607260227203369, -0.016093043610453606,
                    -0.05774317681789398, 0.03458404913544655,
                    -0.039231378585100174, 0.04433886706829071,
                    0.030576638877391815, -0.039583563804626465,
                    -0.014389156363904476, -0.011600430123507977,
                    -0.01860383339226246, -0.06968911737203598,
                    -0.00932212546467781, 0.04429791867733002,
                    -0.04605984315276146, 0.03751702234148979,
                    -0.05877743661403656, 0.059127889573574066,
                    -0.06265012174844742, -0.02298392727971077,
                    -0.02580929733812809, 0.05355842784047127,
                    -0.05879244953393936, 0.015853041782975197,
                    -0.06234380230307579, -0.06931474804878235,
                    -0.01973257027566433, -0.01206041406840086,
                    0.024013200774788857, -0.0019634664058685303,
                    -0.024951940402388573, 0.038623105734586716,
                    -0.020909709855914116, -0.007245693355798721,
                    0.014700560830533504, -0.02974517270922661,
                    -0.0256641935557127, 0.020644715055823326,
                    -0.038404837250709534, 0.041595686227083206
                ]
            },
            "inputBias": {
                "rows": 10,
                "columns": 1,
                "weights": [
                    0, 0, 0.00009621350181987509, 0, -0.0006366118905134499, 0,
                    0.06556982547044754, 0.27608388662338257,
                    0.3015415072441101, 0.27853959798812866
                ]
            },
            "forgetMatrix": {
                "rows": 10,
                "columns": 1,
                "weights": [
                    0.03636256977915764, 0.06014208495616913,
                    0.02550634555518627, 0.004605539608746767,
                    -0.062240518629550934, 0.014390935190021992,
                    0.03347808122634888, -0.043405599892139435,
                    -0.05608353391289711, 0.059134066104888916
                ]
            },
            "forgetHidden": {
                "rows": 10,
                "columns": 10,
                "weights": [
                    0.02174101397395134, 0.06940501928329468,
                    0.06337862461805344, -0.0070824166759848595,
                    -0.012051740661263466, 0.03459037467837334,
                    0.01944771036505699, -0.04608888551592827,
                    -0.05961184203624725, 0.024131672456860542,
                    0.04517991095781326, -0.04648914933204651,
                    0.059528835117816925, -0.037709709256887436,
                    0.06347565352916718, -0.001106724259443581,
                    0.028795160353183746, 0.003944095224142075,
                    -0.03703194111585617, -0.02118602767586708,
                    0.03919683396816254, -0.020536215975880623,
                    -0.04486769437789917, -0.0033126038033515215,
                    0.017362691462039948, 0.03086351603269577,
                    0.0633394718170166, -0.06247136369347572,
                    -0.055552888661623, 0.05598274618387222,
                    0.03402743488550186, 0.015367873944342136,
                    0.00954113807529211, 0.009024349972605705,
                    0.040342845022678375, -0.04024117439985275,
                    0.04300592467188835, 0.05157128721475601,
                    -0.019472409039735794, 0.054416000843048096,
                    -0.05847863852977753, 0.031126193702220917,
                    0.06274250149726868, -0.001934135565534234,
                    0.029408268630504608, -0.061570052057504654,
                    0.055246103554964066, 0.00202795397490263,
                    -0.03365413099527359, -0.012604215182363987,
                    -0.02694040909409523, -0.06800643354654312,
                    -0.04565189778804779, -0.028464242815971375,
                    -0.012209984473884106, 0.032917529344558716,
                    -0.05242432281374931, 0.06889485567808151,
                    -0.06622296571731567, -0.014764167368412018,
                    0.03658808022737503, 0.03872942179441452,
                    -0.018286207690835, 0.03816690668463707,
                    0.020176831632852554, -0.029310930520296097,
                    -0.00855683907866478, -0.0592062771320343,
                    0.058670755475759506, 0.052808210253715515,
                    -0.05748419091105461, 0.030117861926555634,
                    -0.0016334987012669444, -0.033100929111242294,
                    -0.059181101620197296, 0.055782463401556015,
                    -0.03754904493689537, 0.013308968394994736,
                    -0.06232883408665657, -0.017845429480075836,
                    -0.04959782958030701, -0.02014804631471634,
                    0.015516741201281548, 0.037966854870319366,
                    -0.04204927384853363, 0.02585590071976185,
                    -0.041201114654541016, 0.012527335435152054,
                    0.061189621686935425, 0.028385819867253304,
                    0.05593719333410263, -0.03428927809000015,
                    0.011631336994469166, 0.00012567297380883247,
                    -0.06892866641283035, -0.01820928044617176,
                    0.04608260467648506, -0.006953494623303413,
                    -0.024101296439766884, 0.03460216149687767
                ]
            },
            "forgetBias": {
                "rows": 10,
                "columns": 1,
                "weights": [0, 0, 0, 0, 0, 0, 0, 0, 0, 0]
            },
            "outputMatrix": {
                "rows": 10,
                "columns": 1,
                "weights": [
                    -0.11256124079227448, 0.2970796823501587,
                    0.26887789368629456, -0.0561344251036644,
                    0.05046677589416504, 0.10312832146883011,
                    0.06260459870100021, 0.2881283462047577,
                    0.29804283380508423, 0.09222155809402466
                ]
            },
            "outputHidden": {
                "rows": 10,
                "columns": 10,
                "weights": [
                    -0.06162354350090027, -0.02384449914097786,
                    0.06391418725252151, 0.02575327269732952,
                    0.033707741647958755, 0.055276140570640564,
                    0.05122864246368408, 0.05584084987640381,
                    -0.01506139524281025, 0.022572427988052368,
                    0.051028747111558914, -0.061427563428878784,
                    0.051519714295864105, -0.05477715656161308,
                    -0.05039349943399429, 0.06490165740251541,
                    0.05290763080120087, 0.0026425085961818695,
                    -0.003801965154707432, -0.0025920383632183075,
                    0.0400659516453743, -0.03030182421207428,
                    0.04718386009335518, 0.049344781786203384,
                    -0.06510299444198608, 0.03660542517900467,
                    -0.06433220207691193, 0.07023420929908752,
                    -0.005831677932292223, 0.007026587147265673,
                    0.06259390711784363, 0.06837420910596848,
                    -0.016176283359527588, -0.04955625161528587,
                    -0.06300804018974304, 0.05878765881061554,
                    0.03593723103404045, 0.03539807349443436,
                    0.016852252185344696, -0.04378247633576393,
                    0.02344518154859543, -0.03167659789323807,
                    0.018641488626599312, -0.03353692963719368,
                    -0.07054999470710754, 0.06562892347574234,
                    0.03491077572107315, -0.06536165624856949,
                    0.068096823990345, -0.0400821827352047, 0.05712459981441498,
                    -0.0703691765666008, -0.03754996135830879,
                    0.06784412264823914, 0.03470185026526451,
                    -0.04647761955857277, 0.04984665662050247,
                    -0.06677191704511642, -0.025915032252669334,
                    -0.03960898518562317, 0.009693093597888947,
                    -0.06245105341076851, -0.006902461871504784,
                    0.05667129158973694, -0.033234234899282455,
                    -0.0012176692252978683, 0.007214725948870182,
                    0.021008774638175964, 0.02237902581691742,
                    -0.0021220771595835686, -0.01192493923008442,
                    0.01696779578924179, 0.048177171498537064,
                    -0.05240582674741745, -0.03269680216908455,
                    0.03861342370510101, -0.0002465163415763527,
                    0.001950445817783475, -0.03654077276587486,
                    -0.04997628927230835, -0.02500525489449501,
                    -0.06059864163398743, 0.003056703368201852,
                    0.05187356472015381, 0.026204315945506096,
                    0.030209604650735855, -0.0055537293665111065,
                    -0.021907145157456398, 0.06938431411981583,
                    0.06645776331424713, -0.04916348680853844,
                    -0.025090347975492477, -0.03334079682826996,
                    0.019445914775133133, -0.00019034583237953484,
                    0.024869617074728012, 0.01620922051370144,
                    -0.01796894520521164, 0.002954892348498106,
                    0.019319184124469757
                ]
            },
            "outputBias": {
                "rows": 10,
                "columns": 1,
                "weights": [
                    -0.27784237265586853, 0.033116478472948074,
                    0.001100584864616394, -8.212910529437067e-7,
                    0.00023635081015527248, 0.38166967034339905,
                    0.000250300916377455, 0.021285438910126686,
                    0.1596069037914276, 0.7055164575576782
                ]
            },
            "cellActivationMatrix": {
                "rows": 10,
                "columns": 1,
                "weights": [
                    -0.030093025416135788, -0.06720879673957825,
                    -0.05602181330323219, -0.0026284947525709867,
                    -0.051071617752313614, 0.03988855704665184,
                    0.052896350622177124, -0.06989642977714539,
                    0.04805704578757286, 0.09923427551984787
                ]
            },
            "cellActivationHidden": {
                "rows": 10,
                "columns": 10,
                "weights": [
                    0.04414181783795357, 0.055918626487255096,
                    -0.0599559023976326, 0.050983354449272156,
                    -0.034368496388196945, 0.032397765666246414,
                    0.04646335542201996, 0.054384563118219376,
                    0.006797578651458025, -0.023480121046304703,
                    -0.006211610045284033, 0.02342599257826805,
                    -0.003440534695982933, -0.01942462846636772,
                    0.020319383591413498, -0.0141780786216259,
                    -0.045855216681957245, -0.05880095064640045,
                    -0.059479475021362305, 0.06108880788087845,
                    -0.03670693188905716, -0.017925819382071495,
                    0.02664784900844097, 0.027425028383731842,
                    0.04058125615119934, -0.057350728660821915,
                    0.008826281875371933, 0.005155124701559544,
                    0.020390145480632782, 0.01577731966972351,
                    0.022813953459262848, 0.023866279050707817,
                    -0.05772172659635544, 0.019917909055948257,
                    -0.014970207586884499, -0.020228395238518715,
                    0.061789371073246, 0.03735772520303726,
                    0.0018824220169335604, 0.0629015564918518,
                    -0.020751234143972397, -0.02087734080851078,
                    -0.003745377529412508, -0.05290355533361435,
                    0.03782971203327179, -0.0388132780790329,
                    -0.00993349589407444, 0.010814502835273743,
                    -0.01596415787935257, -0.015913106501102448,
                    -0.07008259743452072, 0.043116360902786255,
                    0.04184514284133911, 0.053596027195453644,
                    0.05449870228767395, 0.046045247465372086,
                    -0.0018853552173823118, -0.011089256964623928,
                    0.03966701775789261, 0.04258822277188301,
                    -0.032094553112983704, 0.06611696630716324,
                    0.036812674254179, 0.002118973061442375,
                    -0.04460196569561958, -0.04183368757367134,
                    -0.000362068327376619, 0.03115113638341427,
                    0.0631301999092102, -0.03302883729338646,
                    -0.0625491589307785, 0.01508681382983923,
                    -0.026530912145972252, -0.014652878046035767,
                    0.05917558819055557, 0.023004261776804924,
                    -0.06818490475416183, -0.02836497314274311,
                    -0.0007239170954562724, -0.03303467109799385,
                    0.06815491616725922, 0.04236942529678345,
                    0.006965881213545799, -0.008205232210457325,
                    0.016628950834274292, -0.06678525358438492,
                    -0.04808564856648445, -0.0008585323812440038,
                    -0.03665422648191452, -0.01850827969610691,
                    0.01195343304425478, -0.006693706382066011,
                    -0.05411243811249733, 0.003970316611230373,
                    0.002455779816955328, 0.015037812292575836,
                    -0.028727011755108833, -0.06851264834403992,
                    0.034722890704870224, -0.028318526223301888
                ]
            },
            "cellActivationBias": {
                "rows": 10,
                "columns": 1,
                "weights": [
                    0, 0, 0, 2.0393910915572633e-7, 0, 0, 0, 0, 0,
                    0.2897763252258301
                ]
            }
        }
    ],
    "outputConnector": {
        "rows": 1,
        "columns": 10,
        "weights": [
            -0.2220650613307953, -7.2558135986328125, -7.153386116027832,
            0.008120139129459858, 0.4382643699645996, 7.254829406738281,
            7.095460891723633, -7.482790946960449, 7.2376861572265625,
            7.156199932098389
        ]
    },
    "output": { "rows": 1, "columns": 1, "weights": [-4.890589237213135] },
    "inputLookup": null,
    "inputLookupLength": 0,
    "outputLookup": null,
    "outputLookupLength": 0
}
